<?xml version="1.0"?>
<opencv_storage>
<cascade>
  <stageType>BOOST</stageType>
  <featureType>HAAR</featureType>
  <height>45</height>
  <width>38</width>
  <stageParams>
    <boostType>GAB</boostType>
    <minHitRate>9.9500000476837158e-01</minHitRate>
    <maxFalseAlarm>5.0000000000000000e-01</maxFalseAlarm>
    <weightTrimRate>9.4999998807907104e-01</weightTrimRate>
    <maxDepth>1</maxDepth>
    <maxWeakCount>100</maxWeakCount></stageParams>
  <featureParams>
    <maxCatCount>0</maxCatCount>
    <featSize>1</featSize>
    <mode>BASIC</mode></featureParams>
  <stageNum>2</stageNum>
  <stages>
    <!-- stage 0 -->
    <_>
      <maxWeakCount>3</maxWeakCount>
      <stageThreshold>-9.2943489551544189e-01</stageThreshold>
      <weakClassifiers>
        <_>
          <internalNodes>
            0 -1 2 2.3194198310375214e-01</internalNodes>
          <leafValues>
            -9.4329899549484253e-01 8.5714286565780640e-01</leafValues></_>
        <_>
          <internalNodes>
            0 -1 3 -1.6188383102416992e-01</internalNodes>
          <leafValues>
            9.3801128864288330e-01 -8.1960552930831909e-01</leafValues></_>
        <_>
          <internalNodes>
            0 -1 4 3.9399221539497375e-02</internalNodes>
          <leafValues>
            -8.0756264925003052e-01 8.3346962928771973e-01</leafValues></_></weakClassifiers></_>
    <!-- stage 1 -->
    <_>
      <maxWeakCount>2</maxWeakCount>
      <stageThreshold>5.2356021478772163e-03</stageThreshold>
      <weakClassifiers>
        <_>
          <internalNodes>
            0 -1 0 -1.5272706747055054e-01</internalNodes>
          <leafValues>
            -9.9473685026168823e-01 1.</leafValues></_>
        <_>
          <internalNodes>
            0 -1 1 -1.7701491015031934e-04</internalNodes>
          <leafValues>
            -9.9476438760757446e-01 1.</leafValues></_></weakClassifiers></_></stages>
  <features>
    <_>
      <rects>
        <_>
          0 0 24 42 -1.</_>
        <_>
          0 14 24 14 3.</_></rects>
      <tilted>0</tilted></_>
    <_>
      <rects>
        <_>
          0 43 12 2 -1.</_>
        <_>
          0 44 12 1 2.</_></rects>
      <tilted>0</tilted></_>
    <_>
      <rects>
        <_>
          1 6 33 17 -1.</_>
        <_>
          12 6 11 17 3.</_></rects>
      <tilted>0</tilted></_>
    <_>
      <rects>
        <_>
          2 4 22 38 -1.</_>
        <_>
          2 4 11 19 2.</_>
        <_>
          13 23 11 19 2.</_></rects>
      <tilted>0</tilted></_>
    <_>
      <rects>
        <_>
          9 7 14 15 -1.</_>
        <_>
          9 12 14 5 3.</_></rects>
      <tilted>0</tilted></_></features></cascade>
</opencv_storage>
